{"fitness":886.3985294912645,"weights":[{"key":"0_b","values":[0.4340463,2.240082,1.2567613,-2.0229053,2.7581515,0.18133019,-0.6599165,0.49577048,-1.7078234,0.15502648,0.5876456,2.2108543,2.1460874,-0.51152277,1.3755553,1.2398764,0.87413806,3.7222621,1.0581577,-0.2065979,-0.8564858,0.8731329,-0.6603751,2.443914,0.6651608,0.4577664,0.06486571,0.36195982,3.933082,-0.061460532,-0.46725982,-1.235584,2.9577727,1.0065532,-0.6626919,1.6617839,-2.1959796,2.3565736,-0.69760066,1.2912018,1.5106398,0.32178727,2.8468442,-0.4223951,0.29276258,2.8753614]},{"key":"1_b","values":[2.183935,1.8827586,-0.4933221,4.015633,2.029993,2.5068414,-0.830425,1.7009339,0.03979054,2.364574,-1.4492476,-0.7456498,-0.9141466,2.3576589,0.6696801,3.2932124,-0.91195524,-0.29461244,0.70709664,-0.95036125,-0.10121931,0.5804069,1.4872742,0.41695693,4.2376943,-1.3969101,2.894586,-0.22257647,1.532829,-0.47945222,0.28632677,-0.7952438]},{"key":"2_b","values":[0.09622537,-2.827348,-0.7360467,0.8868512,0.32095876,0.7118182,-3.0629904,0.52920395,1.3701384,-0.40549767,0.47586915,1.8226119,-1.1521056,3.1985774,-0.3529661,3.9347491,-0.55088216,2.9441938,1.416461,0.8009668,1.8724356,-0.08307011]},{"key":"3_b","values":[-0.6278005,-0.44103453,1.0695349,0.67903703,1.971254,-1.5684344,0.252665,0.22918035,2.9751863,0.9762764,-1.5604131,1.615781,-3.4409616,1.079716]},{"key":"4_b","values":[-0.54123867,-0.41101506,2.6910632,4.493218,2.7164884,-0.34493294,-2.3647263]},{"key":"0_W","values":[1.7389969,-0.79632425,2.3926635,2.4951143,1.3445951,1.2935622,0.1620304,-0.15441132,-0.45423856,-1.1804644,1.0653245,-0.6987653,0.83784115,0.9829716,0.23834819,-0.041443557,-0.80914646,0.96527797,2.5306852,-0.7800408,0.38918954,-0.37886065,2.5884535,-0.5400299,1.0073801,0.37918097,-0.641775,0.68764406,-1.669116,-0.6245294,1.7584145,0.37619814,2.8245237,0.3027787,2.6242518,-1.0713114,0.880598,1.7695695,-1.3010108,1.1317455,-0.32971665,3.025608,1.662859,-1.3977883,1.1056004,0.08366948,0.77181655,-0.37745166,1.3866545,0.33344355,-1.9805984,0.5671254,-0.32357338,1.3328505,0.9390724,-0.48221076,-0.17593347,-0.58050823,1.1066589,0.72002596,0.105220705,2.2083926,-1.957726,3.761331,-2.410024,1.015343,2.5792208,0.50675434,1.4341824,2.345597,0.85058063,1.0203425,-0.8554394,2.1607504,-1.8520873,2.4284055,-0.25049537,-0.05114387,-1.479371,-2.2896574,0.13438658,3.564966,-1.2370019,1.0243374,2.9388263,1.9514776,-3.7291157,2.6278121,2.8732002,-0.6765991,-3.137746,1.7830348,0.2720892,-1.0614647,0.41130584,1.072405,1.2665566,0.036893897,-0.6827048,0.21084481,-2.04618,-1.6161189,2.56255,0.086764604,1.3131955,0.092604004,1.1586988,0.25145292,-3.7507405,1.2742273,-0.024480999,1.3928138,-0.30138573,-0.49568772,0.71012163,-2.3961933,-1.4555342,2.6059387,-1.7170446,-0.8045547,-0.6746272,-3.5265713,-0.9103835,-0.66447234,-0.6440487,0.48047993,0.94863886,-0.8993605,0.07657189,0.07211757,0.11910245,0.7544784,1.7333581,-1.1038014,1.6802769,0.90484685,1.3358961,2.689601,-0.5458973,-2.3899617,0.46814078,-2.0893757,-1.3000242,2.0930538,3.5046325,0.0014956612,1.7381558,2.051377,-1.4223442,0.50251806,-2.2258668,-1.0703988,-1.6597239,-0.3423894,-0.9140428,0.960275,-1.7162262,-0.65182805,1.3473333,3.473886,-0.3596126,0.89831465,0.54770416,-1.5447824,1.476631,0.5470659,-1.4334186,-1.1281018,-2.0359468,0.22608784,2.9785514,-0.4521428,-2.3460486,1.8798255,1.4600874,0.2362293,1.6197712,1.982579,-1.0759817,2.9419484,0.7287036,-0.5878991,2.5374455,1.7187917,1.9212785,-4.5442357,-1.1905798,1.7306298,1.8212626,-2.7562733,-3.7693863,-1.3398823,2.2353091,-0.9389932,-1.2200388,2.1560698,1.6219798,-0.09175815,-0.23856679,-0.0055612363,-0.71486175,-1.0506016,0.250061,1.1582992,0.6347673,1.3587828,-1.5025309,3.9123755,0.086565524,0.34132132,1.0166781,2.6507719,-0.54984176,0.122426465,0.5184236,-0.7616787,1.1832783,0.19578865,2.0888596,2.5359406,-0.13395695,1.6389048,-0.43495846,1.6693441,0.7045628,0.8393766,0.08653541,-0.42174292,0.68576336,-2.1729755,0.26042926,3.2811923,-1.6665546,0.5043293,2.5699928,3.0940657,2.430889,2.277236,1.2544506,2.1171703,0.36681625,-3.0869012,0.66426456,2.1761549,0.6963931,0.019956326,-0.6509849,1.949928,1.3524145,2.2177312,0.15242222,0.051060922,-1.8619987,-1.0736096,-0.7983575,0.5201862,-0.7693454,1.0271888,-0.75364673,1.1727681,-0.4491781,-0.9682103,-2.6751668,2.1660678,-1.6372578,1.8346744,1.6210941,-2.3043783,0.68463427,-2.4985704,1.3176045,-0.9861676,1.707984,-2.0224032,0.6177599,1.1624827,0.42196572,3.8657877,0.30215934,0.6812319,1.0353906,1.2968141,-0.41862813,-0.3765448,0.7472081,0.86753285,0.121160805,1.9821898,-0.8613107,0.5534087,0.84127957,1.6549814,0.54385614,2.2681599,-1.3256825,-1.5011647,1.0470792,-0.06352734,-1.7717764,1.3178372,-0.48576602,1.4998602,0.3645103,2.597947,-2.2739933,-0.1476537,0.844275,1.226947,-1.5819232,1.1265033,0.44767952,-0.7832623,-1.8142078,-0.92981535,-1.7029853,3.0992813,0.9346039,0.9713048,-0.09011045,2.587742,2.5042062,-0.07828078,-1.8269706,-0.8328633,-1.8312718,0.58830315,1.0052879,-1.1698841,0.55729914,0.11292019,-1.5723549,0.03820557,0.17935468,0.40581846,-1.3521744,-2.171284,0.21676232,-0.04310295,1.293203,-1.3416687,0.29657513,0.7013698,0.16515148,1.9235693,1.5281821,-2.8478065,2.4096704,0.33267447,0.78899914,0.73868775,-0.8932575,1.3544981,1.5458871,0.1375157,-0.23482358,-0.82623565,0.22697237,-0.12675196,-2.2426658,0.1378554,4.4007444,1.8670163,0.84154767,2.1609128,1.0344611,-1.4604759,2.604234,3.1785126,1.5245366,-0.13346174,2.5111532,-1.3400515,-1.1943992,2.261905,-1.5932865,0.039214417,0.63628465,-1.2178783,2.2824254,-1.2199612,2.6920414,-1.1410795,-1.5938332,0.1371435,0.66161245,3.2946293,-1.3337929,1.2516584,-1.6771387,-1.557802,2.3622317,0.83051497,4.152177,2.9605675,1.4920284,0.16796671,1.1527237,0.72722495,1.6263437,1.0096523,-0.28565818,0.6384727,2.001854,1.1401385,-0.8281665,1.5607101,-0.6488088,1.5785617,0.013812676,0.6947037,0.4014687,2.5847845,-2.2312841,-0.92211956,0.39885795,0.36936378,0.6615517,-2.7456014,-0.18283188,1.1218325,-0.062803924,2.6876194,0.4725307,0.36586168,2.5892506,-0.4458309,0.053211212,1.4130621,0.7901471,-0.16860487,2.8266816,0.45962483,-0.48325804,-2.3655932,1.7762381,-0.70392793,-0.16279252,0.44114852,1.7764199,-1.1147081,3.846653,-0.3149532,0.29868057,1.4161475,-0.42572027,-0.31546023,-0.63774014,-0.5680734,-1.7874722,0.4860799,2.226824,2.7985547,-0.6683199,3.163906,-2.1557355,0.2633805,1.4272932,1.4284216,0.025138559,1.8940642,-0.98924035,-1.7619126,2.4888036,-2.530016,0.041582048,0.51680106,0.82862794,-0.54228896,-2.1720293,-0.656016,1.435791,-2.4914536,4.1183095,0.31588235,-0.36954755,3.1995218,-1.4246325,-1.1759198,-0.62928617,0.05391726,1.724494,2.3799515,1.8127804,-1.3473837,-0.45391154,3.3005536,0.016056685,0.09676319,2.9825242,0.89277613,0.4661095,1.1596353,-2.4390893,1.6620859,0.40720767,1.8845382,-0.28059664,1.0549103,0.9484579,1.1437846,0.58394116,-1.1814624,0.7095357,-0.5050745,0.8106645,2.1881623,1.8943292,0.0057757106,-1.5631,-0.3835769,-0.12297163,-1.2538341,-0.30297408,0.1959103,0.54154325,-0.1653792,1.548632,0.8502859,-0.7029072,-0.04840369,-2.0970979,2.5531428,-1.5604498,1.7175549,-0.06851547,2.528054,4.0463533,-0.36889106,1.0448446,-0.29333237,1.5875878,-1.5016179,2.4938056,0.8622759,1.2922689,-2.539954,1.1685436,1.9709548,0.9358216,3.0232787,4.6061797,-2.113341,1.2691655,-0.31051216,-0.7940286,-0.5181158,0.70267415,-0.7765061,0.27097014,0.029610446,1.9812522,-0.62839913,-0.47191787,-0.7873699,-1.4036537,-1.091741,3.8830552,0.97872114,0.3348361,-0.026817545,1.0307182,-0.46459803,0.07722934,2.8057065,3.7098062,-0.6244318,2.3444722,-2.1031523,2.8604138,-0.21085331,0.6762856,-0.30107835,1.183303,-0.3316045,0.023820741,-0.86283416,0.13877095,4.7931476,1.7406207,-1.2230643,0.8744819,0.48721796,-0.6610048,0.20916845,1.4503535,-0.812635,3.6126716,1.8841503,0.18433324,-2.3507905,-0.84783345,-0.039229434,-0.40898797,0.60285914,2.0937562,2.8708293,-2.2634554,2.8415208,0.74210846,-0.9152058,-1.1097425,1.9652793,0.14508949,-0.49970666,0.18629302,1.2043847,-0.651044,-1.5282843,2.468166,-3.761542,1.1309493,-0.017510088,0.24318834,3.32773,-0.7323803,-2.5649834,-0.6340378,1.0430614,1.2466289,1.4209733,1.6022182,1.6926268,0.025607353,-0.492875,1.8611307,3.5320375,0.5903485,-0.885276,1.594028,0.78432995,1.1463778,1.5033488,1.4940666,-0.08605749,-0.068346485,0.5968913,2.1231985,2.2684186,-1.6415789,3.4193795,-0.8136972,3.291636,1.8096869,-0.023170412,3.8180008,0.36882252,-0.79138076,2.7132454,0.37937063,-0.3680386,0.22275771,2.5492778,1.7727886,-0.6600854,-2.1689222,0.12999828,-0.4832004,1.1787721,-2.1767294,-0.04626108,1.3152074,2.008952,-0.8221788,-0.2329196,0.7081085,-2.8812351,2.3486757,0.5774669,1.0567927,-2.5221918,-0.84811896,2.2869985,-0.74632317,0.5987288,0.8813966,-0.46669185,2.1437733,5.791301,-0.16652167,1.6433287,0.9978893,0.011234708,1.5190231,2.8969667,0.1465541,1.699883,-1.5290478,-0.22617069,0.3067342,-1.7374997,-0.7958042,-1.074098,1.6629292,1.3527817,-2.2794533,1.2076719,-1.4801878,1.8352334,0.76095974,-0.21981265,0.37298742,0.46749434,-1.3195506,-1.2814354,0.51473045,-1.6318084,-0.3863297,1.3748015,-1.2701579,0.4153826,2.7731392,0.63279706,1.0643097,3.5094235,0.8317371,-2.4295492,0.83621484,2.3331242,2.3791828,1.3198049,3.4489753,0.25720122,3.0594969,0.35750782,2.1669416,2.1307163,0.9524386,0.42687786,2.201126,1.035625,-0.8119583,1.0842258,1.9465277,1.1264617,0.5887481,-0.4731392,-0.6268139,1.6365099,1.403864,-0.69981134,-1.6069654,-1.9506018,1.8728622,-0.8106784,3.5622296,1.7869295,0.6437931,-0.50972223,2.1201,1.5922987,0.63946617,-0.33427233,-0.81927454,3.6067472,-0.9729828,-0.37027907,0.96706605,0.4040895,0.54492676,1.8716906,-2.850297,0.9719702,-1.1260518,0.81553364,0.8734547,1.252017,1.0154026,-0.37298706,-0.28763562,0.847026,-1.0263485,0.08694345,0.50267017,0.42880297,0.3859912,-0.036132105,-1.3897653,1.729635,1.8312047,-0.14732823,0.63058525,2.5998642,-0.7533988,-1.3644433,1.5301343,-0.16659313,-0.4283559,2.3595467,1.4504416,-0.4449992,0.8492477,-1.0335857,0.9980012,2.5636578,-1.2763609,0.9126998,-1.1450458,0.5841448,-3.5818639,-0.32673496,-0.82021827,0.40007365,2.380264,1.4063393,0.041244566,1.4179313,-0.99299324,-0.80450195,-1.0701635,-2.6142485,1.7698383,0.038923107,-1.8424319,0.8078265,1.2725465,3.5601535,1.5314304,0.09516215,0.7948839,-1.0312134,2.177179,1.0477737,3.8935535,-1.8012724,2.081177,-0.82419693,1.7993194,-2.4467375,0.048169363,0.7653405,0.66398656,1.9113237,-1.6969184,-0.5455476,1.5966408,-0.29133883,-0.003469212,-0.6519003,-2.2204585,1.9503675,0.9332126,2.436709,1.2049512,0.76245296,-0.92068505,0.12594944,-0.541174,0.23333904,-1.0135893,0.4322753,-2.4762022,1.0963368,1.178436,1.4625157,0.026774807,-1.5030481,2.5535388,2.3095706,-2.633517,-2.6222057,1.9689302,-0.2540598,0.6007876,1.5254698,-1.2777066,-0.9097283,1.6436062,3.0263226,0.32936147,-0.44108352,-0.07511991,3.7448757,2.8661954,1.2609041,2.6741037,-2.0469618,3.1444066,-0.24266633,2.6928558,0.3557613,2.8455074,0.14860125,0.56283796,0.57093245,-1.608376,-0.9304962,0.13165195,0.47674793,-0.78400475,-1.3548778,-0.1463082,1.5336832,-1.4163432,0.36182314,1.2187299,1.8617189,2.549263,2.2951443,1.7703311,4.0726924,0.13914126,0.63647324,-1.939063,-2.1147513,1.2849901,-0.7236692,0.6544967,2.2535489,0.9976161,2.0033183,-0.5407111,-0.61146754,2.4487162,0.95081955,1.2984995,0.4317577,0.9157189,1.2120657,0.29590356,-1.6975042,0.02856079,-0.06840488,-0.44972867,-1.604825,3.3205407,-0.03252972,0.815568,1.3591814,0.24793762,1.6131902,1.0078772,-1.170541,-0.37731814,0.2825909,0.74412423,-1.4164345,-1.7292924,1.7431961,0.23838212,-2.55777,2.5633154,-0.5041183,-1.4101405,0.8646459,-0.77133703,-0.93575025,-2.7070968,-0.3567829,0.034837633,-0.25725535,-0.8425291,-0.9082383,-1.0157626,-1.6787403,-2.215472,2.4934628,0.8044139,-1.858926,1.9739137,0.028413353,0.8215686,-1.0629104,-1.6955644,1.4897391,1.2025249,1.209501,9.822994E-4,1.5756944,-2.8167331,-0.15112256,-0.66047674,-0.16726284,2.2476976,-0.8269845,-2.1591852,0.4225937,3.1682367,2.1947255,-0.84868133,2.0386744,0.53199935,0.91687834,0.834443,0.61643517,-0.40932527,0.6371654,-2.0168343,1.6645116,3.1156328,-1.1226296,-0.58238447,1.8306167,0.33233383,3.1179976,2.2713394,-0.55351985,2.3586414,-0.19138932,1.3266333,-1.5041394,0.55385506,1.9067545,-1.8903805,-2.3156207,-2.0005383,-1.4800212,-0.9451284,0.6389433,0.15116094,1.4983323,4.076052,0.3544537,4.0089526,-1.2106453,0.18072341,3.3842723,-0.00968034,3.43659,1.3772199,0.63200647,0.7412781,-0.32834163,2.5746024,0.2696568,2.4532864,0.5025764,0.7503759,0.08191975,0.8281613,-0.33637393,-0.70760083,0.054721303,1.6933601,1.000051,4.461191,1.6966825,-0.38469344,-0.65654045,0.6831629,0.3249075,1.892537,2.1154976,-0.58434343,0.0789563,1.637191,-0.56074643,-2.0359933,-0.20234235,2.0371017,1.490932,1.3116158,1.0759566,2.6353903,1.5183793,-0.3051398,0.99760735,-0.34837973,-2.6923685,-1.7737786,4.5364184,0.61063355,-0.7737313,0.6473548,-1.0572171,1.6843033,-1.0750507,-1.1167593,-0.5177165,-0.59355956,4.798654,1.4991704,-1.3863862,0.37904367,-0.22576118,0.9313996,-1.3416996,0.85951555,-0.11406547,3.3796604,1.2490427,1.396008,-0.24144432,2.9411023,0.033644848,0.9653122,-2.9363573,-0.54909766,-1.8218,0.3933549,-0.49146882,-1.2646403,0.5260904,2.2986467,-1.4331692,1.1878221,0.9530547,-0.21659839,0.7492811,0.100548714,1.0036923,1.3922557,-0.07134516,-2.1545417,0.10993273,2.9580371,1.469027,3.049795,-0.98934853,-0.5917977,3.0026298,0.4317042,1.2476082,1.8639215,0.06352233,-0.20461544,2.497775,2.595651,-0.8935545,0.50083804,0.097625725,0.33202955,-1.1971174,-0.4532043,4.2321725,-1.3040034,1.3094318,4.1586704,1.1213746,0.74314135,-2.4438593,0.94076955,-1.1409116,0.90830743,0.49116057,-1.6442631,1.1680093,-0.13315016,1.9960792,1.0445229,2.5892723,1.4670786,-0.20799944,-1.3565798,0.22161324,2.0850115,2.0772557,1.6177635,1.3359848,-2.7548323,0.90200734,2.8149226,1.5455474,5.2448397,-0.5896972,0.9636653,0.79851055,1.3906189,2.458009,-1.1115524,1.5945492,1.9006854,0.29765326,-0.21675627,2.711062,-1.2236948,-0.11782423,2.3670578,2.0558014,2.893499,-0.51179594,-2.2687778,-2.0299218,1.0750474,-0.7363817,1.2248714,-2.557648,1.0777695,1.208437,0.09417069,2.6597505,2.1181045,3.2870786,1.7884394,3.6169782,0.53816396,-0.297856,2.3533885,1.7977244,1.93235,-1.8432434,3.7027984,0.3602096,0.6180986,2.1185873,1.343925,3.0290756,-0.75682485,-0.43665576,1.1570822,-0.40765807,1.046895,-0.8533967,1.2579414,-2.0649948,-2.2711112,-0.69323784,1.7241861,1.4106206,1.3673867,-0.34634042,2.4491239,1.9545131,0.71442825,0.84050035,0.97520185,2.3308878,0.8572179,0.49959704,-2.6843078,1.5157611,2.2698028,0.88064414,-1.540489,1.5344008,1.6158887,-0.39859045,-1.6164033,-1.2354785,-0.3264776,-0.9074696,-1.4605747,2.1456568,1.9637661,-1.1529057,1.2149858,0.49348918,-0.21686926,1.4147366,2.290534,-0.25677577,-0.8488047,-2.2585025,-1.5525489,0.1401015,1.5843372,3.3935256,2.0968776,0.3106478,2.0398262,0.035030145,-1.229582,-0.9872577,-2.4930801,0.15011615,-1.5863581,0.35960045,0.9941312,-0.5217933,0.6724113,0.16658592,-0.83805776,-2.3775883,-1.413206,-1.4111048,1.1360611,-0.5163491,-0.80007714,-2.4014533,1.1145976,3.7717218,1.5069057,1.8928711,-0.19234121,-1.9174492,0.33592325,0.24854887,-2.8045464,-0.10278906,-2.506865,-0.29276812,-1.6071072,0.031657122,-0.04339674,0.79716855,0.08837693,0.110699214,-0.22497746,-3.0579793,2.31682,1.2907068,0.70851797,0.49713942,-2.0867093,0.3237399,3.5073197,2.6053276,0.36153173,-0.8427115,-0.08404985,2.455566,2.93871,1.9850587,-0.93513805,0.15079428,3.4509618,1.6286399,0.41003937,0.064382836,3.243731,0.6878948,-0.51721567,0.88629365,-1.2509882,3.530301,-1.0867549,-0.27674958,0.82797354,-1.3051968,4.0307455,1.320865,-0.9175044,2.9007962,2.3716793,-1.2922587,0.33473372,-0.72333515,1.9817388,-0.33524755,2.1495075,2.6741858,-1.491352,2.9547148,2.46812,0.20035441,-0.7126623,-0.6096842,2.7808397,0.9632981,0.96472275,-0.839268,-0.09088575,0.35380903,-0.30145782,0.049085166,-2.230372,0.6356759,-0.15707305,2.5332808,2.2108757,-1.7481096,-2.1568685,1.2713393,1.2807852,-1.1480861,2.4335597,-0.023463309,0.6136091,-1.0612744,0.117303155,-1.4275323,-1.2770605,1.7038903,0.23008525,-2.607903,1.7271097,1.750296,2.6369648,-0.067025,-1.6000806,-0.5971485,-2.4766288,0.65389925,-1.6797582,-0.5154957,-0.15856117,1.8357826,-1.2585659,0.4847666,1.9257244,0.5456769,0.39841345,1.255476,-0.96846384,-1.0917141,-0.63798016,0.08818953,-0.2892111,0.10999164,2.002348,-3.9718232,0.93603057,0.7489757,-1.5195167,0.33866033,0.3935126,0.10892525,-0.13435915,0.04215362,-2.9790943,0.79585695,-0.47975254,1.1518897,-0.61243206,1.8549584,2.9176872,-0.28117603,2.8556707,1.5725743,1.7286928,-0.15753283,-0.6479802,0.70609814,1.1279184,1.6418688,0.5407051,2.878261,1.1160866,1.7360063,0.29192254,0.89494234,0.8067697,-2.2245412,2.6094277,0.6455128,0.60363305,1.6716746,0.28608134,1.6406223,-3.0582938,1.3236154,2.49678,-1.8262157,2.891972,2.3021066,0.58268493,-0.45287097,1.0762012,-0.5679697,-1.1372491,0.23009235,-0.041229226,-0.5786576,1.0566739,2.0734637,0.8135903,1.1368517,2.39899,1.0077608,-0.6525449,1.8464891,1.7115566,-0.034973197,0.9121869,2.4743118,2.1216424,1.13599,0.053883426,0.21835172,1.0056294,1.2922637,-1.8553586,1.9270642,-0.29563162,1.8351973,2.51912,3.663154,-0.30477607,-3.5364742,-2.228086,-2.550864,-0.34240198,1.9633946,-0.36793923,2.0236106,-1.307053,1.7309135,0.6700962,-0.13351895,0.7311375,0.46301764,2.394593,2.8779747,1.1436042,1.4754342,-1.5636321,2.8143125,3.9172573,-2.8617449,1.7783679,-0.17642653,-0.33779058,1.1520061,1.9600284,-0.91317326,1.7429533,1.9034779,0.1519048,-2.431075,1.3670145,1.6171232,-1.6765972,0.418333,2.6494355,1.4909,-0.80571216,1.8747072,-0.35274446,2.3001463,0.91239405,1.5871785,1.5846696,0.76026607,-0.5124635,1.7618107,0.22234832,3.063727,0.28921393,1.9769032,0.15716389,0.55856204,-1.045723,3.3407586,0.6681148,1.4715235,0.3064978,0.17613441,2.3244493,-1.1144128,0.09692415,0.31590495,-0.22176008,0.18264404,2.359018,-0.6684629,-2.961863,2.4856932,0.69490004,-0.052410558,2.6117966,2.5172846,1.261568,0.52391964,2.5252483,0.03246662,3.2387483,-1.452691,0.026682122,1.9526026,2.4155312,0.11977795,0.095528446,1.0204729,2.5352385,0.07381081,-0.87251955,0.7530339,0.92171806,1.7187003,-0.1509417,-2.2998192,-3.3158386,1.2744446,2.7722898,0.33126223,-1.9408565,0.4932356,-2.0993416,-0.20200762,1.9228979,0.9351306,0.2619706,0.82161355,2.4050963,-1.043288,-1.3787831,2.4569006,-1.7912025,-0.41976133,2.4321413,-0.39618683,1.7889695,0.35285953,0.9242057,3.5953875,-1.6811153,-0.76846987,0.51610374,1.139011,0.93649364,0.6634548,0.78028256,2.2044487,-0.8835394,4.305453,0.6654876,0.10238274,-2.3873603,0.8143688,-1.8615657,0.0023271032,-0.13212527,-1.7033671,0.113875344,1.0058689,3.263954,-1.6499494,0.5657942,-1.6370279,0.42320937,2.451126,-1.8642727,2.4752991,-0.6812378,3.995062,1.1850101,-2.1147084,0.75996244,1.3258772,0.347733,2.7003565,4.067194,2.4144142,-0.16660587,2.3148587,1.3785172,0.93123984,4.3199506,1.0889784,1.6474595,-1.8671271,-1.668626,-0.56541735,1.7852545,0.44210625,-0.513472,1.0702385,1.3434846,1.0891842,-2.5301545,-1.5928813,0.6565487,0.57096255,0.5012152,3.5353217,1.549397,0.33040136,-0.38185397,-2.8460042,1.4246861,2.6919851,-2.268148,0.8865545,0.9890518,1.899393,-0.4613496,2.347701,2.7075715,-0.2531413,0.53923064,2.4274294,1.394565,0.33625475,3.2967997,-1.5779026,-1.849443,1.7831898,3.5870452,1.0521147,0.8823648,1.7945502,-0.62712294,2.3179169,-0.89948,0.5147641,2.0902185,1.2214729,1.3513483,1.7157744,2.7109532,-0.31912345,-0.28533876,1.1326481,0.5471545,1.0379411,1.7727207,-2.3743951,2.3093596,-0.5715753,5.316949,3.3510365,0.608274,-1.992336,0.8084544,-1.0287763,0.6508913,0.3949046,2.601481,-0.015103934,2.0902343,2.5879326,0.89235914,-0.409138,-1.8815995,0.95522976,1.5970597,-2.1631656,-1.5148301,-0.17189877,-1.1906618,0.6560024,1.9075906,1.6962688,2.4968383,0.6361094,-2.3716712,3.2812974,3.3387988,0.5912339,2.7708352,0.42879066,2.1641848,0.6327322,-0.1731035,1.5981414,-1.4283648,-0.9032413,-0.789612,3.5275967,-0.25860354,1.4762391,-0.86650825,-0.26031923,1.3015108,3.4760947,2.1314225,0.7838466,-0.63469416,-0.40678257,3.2720444,0.03528086,4.6607018,-1.0074698,-0.6082755,0.9551714,-0.20561124,-1.0129787,0.5195355,0.0046885153,0.55005455,1.0028187,2.7834995,-1.304126,1.0128647,-0.27393153,0.3997391,-1.7922839,-0.03281053,1.8303752,-0.5420181,2.045618,2.3680122,1.3658406,0.021467693,-1.1224205,3.6097746,0.86418283,-0.9663813,1.6049513,0.1691432,0.0062359604,-0.30448672,1.709615,3.193024,-0.9221393,-0.579241,1.9542624,2.658164,-0.15791366,-0.14318174,2.1688237,1.1091254,-0.94953954,1.604808,2.2070317,-0.19018282,0.26994014,2.1710567,0.90196544,1.1617981,2.1155312,-1.613302,-0.08855364,-1.3855984,1.5866035,0.26028022,1.3724943,1.4043785,1.9873484,-0.77172816,1.014086,0.008183181,1.6826854,1.6252824,-0.20881523,-0.16239542,0.7522863,2.8193955,1.227735,3.8945305,0.62597066,1.0330826,-1.1238972,3.6137269,-0.7491431,2.4653273,2.1214738,1.506342,0.8191641,0.74992275,0.7953304,-1.6628337,1.8687266,-1.332461,3.5734386,-1.9575355,1.300474,1.4265516,0.04074321,2.9069316,0.75393856,-0.06577988,-1.7411536,2.733154,0.27425504,0.35072464,-0.7007608,-0.4398527,1.7498525,0.037394002,3.932927,-1.5818818,1.520009,2.8184984,3.1758018,0.5053602,-2.603068,3.3142183,0.45500034,0.21940622,1.8940339,-0.41832486,-0.76923895,-0.009431332,-1.4719954,-1.6313998,-1.3763785,1.7138517,-0.27098334,1.5730375,0.4406885,-0.30513507,0.20688227,0.88640773,-0.99837047,-1.5039585,3.1809347,3.06062,0.2883792,1.7311951,-0.706741,-2.3716946,2.535868,0.46248183,2.8899832,-0.7484668,3.9952962,2.1320717,0.5842241,-0.78660476,2.6785295,1.9145639,2.5222068,-0.6796941,-1.1711018,1.1188391,-1.7624019,-0.07853947,0.8436755,2.7553349,1.5888592,1.557392,-1.3072284,1.8170072,0.7694868,1.6863673,-1.3775804,2.1388226,4.929078,-2.1504447,1.810597,0.25818723,0.43238464,-2.1002939,-0.77749383,1.8850865,-0.6819696,1.1549746,1.2391012,-0.037226908,0.9028441,0.9673442,2.994229,1.6407759,1.7554631,0.5182709,4.0317187,-1.1600983,-0.22583342,-1.330993,0.9780522,1.1131423,0.20030661,-0.72548395,4.077687,1.2335846,-0.16896807,-0.54358447,-0.24594846,1.8447,0.66383046,-1.0455782,-1.1688701,1.2424258,-0.24795184,-0.6224353,1.5584048,0.32229102,-0.39117336,-1.3935946,-1.2078981,0.4021191,0.33441284,3.2149467,-0.8074766,0.044120967,0.49320057,2.6555831,0.18918695,0.080029264,0.72771263,3.437699,-1.1208831,0.8774872,0.27614963,1.2307906,-1.9046874,-0.44699752,-0.23105603,1.0296152,-0.37158608,1.055568,0.5170419,-0.12530205,-1.908828,1.5902904,2.9051273,0.7156722,-0.370032,1.3305782,-2.1465847,0.8106228,2.4418185,3.3747747,-0.65752524,0.60937995,3.2623246,1.3980502,0.22678994,-1.0876676,2.625772,-3.4413092,-0.7777695,0.87851775,1.3913004,0.8816752,-2.2902625,4.3144236,-0.53750724,-1.0244365,9.797951E-4,-0.9343032,0.006764073,-0.985389,0.82935756,1.0014193,2.641043,-0.28815427,-2.1225507,-0.6310805,1.1998684,-0.19582455,1.6953263,-1.6839832,-0.89645153,0.6828939,2.9540842,0.037116226,0.1670315,3.7860293,1.0608895,1.7036755,-1.0087727,1.6589996,1.339838,0.22495933,-2.632909,-1.8361131,1.2061813,2.7619116,0.65771735,-1.4382305,1.0188566,1.032909,2.8845527,3.0469768,-0.69113016,0.20374568,-1.5537446,0.07726988,0.39689714,-1.3045994,1.7821141,-0.28080142,-1.9080682,1.1712543,0.88281226,-0.4056153,0.19432062,2.418031,0.6775095,1.1289464,0.26467845,-0.80519754,0.8485764,0.11586699,2.9900029,3.1847322,1.5987179,0.1334383,-1.6989903,0.6568344,-2.2104287,-0.4402116,-0.27522737,0.79335546,0.079441205,-1.2949336,0.885175,0.20810212,0.18246266,0.5003322,0.271167,1.1526338,-0.49372062,-0.19511068,0.2843811,-1.5556911,-1.0461748,4.200386,0.36990792,0.47004867,3.5773883,-3.338149,2.156733,1.3638972,-0.2667914,0.002087919,-0.56934327,1.2649517,1.9070508,-0.9221871,2.3152719,-0.14969347,2.5466893,-0.84318024,2.7299426,1.4688069,-0.8190354,0.19597867,0.9273028,3.0877361,2.1409097,3.442253,1.1123791,-0.82601017,0.8335459,-1.8210833,-0.34661776,0.046905108,-0.5739751,5.1625943,-1.596758,-0.3408202,-0.9496812,1.0928801,-2.7669861,-1.3606727,2.0484626,1.1446398,-2.3345551,-0.333615,1.3453122,-0.47919947,1.4293802,1.7111497,-1.1242139]},{"key":"1_W","values":[-0.09101594,-1.3402625,-1.4022814,1.0142643,0.062068522,3.5887723,-1.0983616,-1.2561467,2.2192266,0.7868462,0.2695531,1.5546954,-2.4603753,1.7742562,1.6046709,-0.86964846,0.7671306,0.20852953,0.94930476,2.57106,-0.6389523,1.1811337,-0.2512477,-0.18492205,0.12105589,-2.4269633,2.2200387,0.6139726,1.60736,0.058276042,0.6676006,0.9698105,2.0428405,0.5094234,1.8307127,-0.72870815,0.488035,1.757699,1.6007628,-0.76346356,-0.498974,4.235913,0.51965755,3.254631,-0.08477292,-0.20193581,3.1598387,-1.0594991,1.0828296,3.2058778,-1.459989,0.6255725,2.0758917,0.39139017,0.48816675,2.6315484,1.8803394,2.3170004,-0.3923185,0.81976205,0.72642034,-0.5265198,0.31650472,-0.62252456,-3.1992993,0.002051048,0.50375044,-2.5037036,-1.2688291,1.7772509,0.30677482,-1.1882755,-3.3769286,-1.777954,2.7377818,1.9115779,-0.7038878,-0.8941145,1.648573,0.8992078,0.3051741,-0.29842547,0.65878075,-1.1975884,1.4316883,-2.7365174,0.51440704,1.5070975,0.05664771,3.1842659,-1.1108012,1.2996005,-0.8421609,1.6283641,0.18643595,0.11004056,-3.5058765,0.19833843,-1.5092019,1.0679183,-0.39899132,3.7161837,0.92004603,1.2564936,0.7287244,3.075841,2.5488138,1.4725965,-0.2696075,3.4518285,1.2145673,-1.0063587,1.0564859,-0.48951146,-0.8912351,-0.50779784,-0.7459212,2.1596477,0.38882983,2.075965,1.3562688,1.616105,-0.246286,-0.79260796,-0.0023671077,-2.932896,0.1342921,-0.46480802,0.54271036,3.4084575,-0.62703633,-0.7535728,2.3679874,0.93042403,-1.5681481,0.38762817,2.2360973,0.9591824,0.8231148,1.3482511,2.1664622,1.7554387,0.28953946,2.674534,1.464634,0.4403891,1.1819727,-2.2363203,-2.120667,-0.6066695,3.4270635,-2.5981588,-0.736523,-0.298422,0.21839178,1.714624,-1.0173038,2.3592486,-0.6233341,2.003999,1.3316585,-1.1740899,-0.49683347,1.2296407,0.04458593,-1.448093,-1.588435,0.084863134,1.9374399,-0.27835003,0.16946924,-1.0362915,-2.1462638,0.5086327,2.7342203,0.35422513,0.45915818,0.10855917,0.2747509,-0.30352104,-1.1011711,0.028944349,1.8421794,-1.240977,-1.0554917,2.0777023,-1.6868296,1.4946643,1.385423,1.2605826,0.31678548,1.2686703,3.3972633,-1.5093362,1.2450308,0.17645276,0.6849812,-0.03479523,0.8849231,1.3837823,1.1312685,1.5373635,0.41284743,-0.42903805,-0.29974258,-1.124419,0.48957136,1.267457,-0.020874152,0.5040492,0.43997073,2.3543508,-1.3997686,0.5114869,0.20956036,-1.2769047,-0.62302935,-0.70491475,-0.6270235,-0.120214246,1.483653,-2.1469946,-0.23689808,-3.0665648,1.4682964,-1.045907,0.12950273,-1.6756097,3.5204604,-0.06680796,1.542836,-1.3700684,-0.7953602,-1.0425016,0.7074426,2.8765357,0.86581,-1.1495423,2.9355655,0.20742188,-2.449409,-0.30903676,2.9723732,0.3416215,-1.4239566,-2.4152186,1.8694046,-1.5420622,0.79436827,0.54226035,-2.6210093,1.3435743,1.7254057,0.20210345,2.002848,2.6758919,0.68177235,-1.0156661,4.1571507,2.5523589,-1.3213286,0.40600333,-0.5425237,0.65978765,0.011871966,0.90111434,-2.482897,2.3191543,-0.59804493,0.039695457,-0.9992594,-0.785915,-1.5786706,4.579467,0.43860883,2.1487725,-2.0317788,-0.16044745,1.2294359,2.977408,-1.4699942,1.8613138,-2.6195538,0.83842117,1.2212828,-0.7865974,1.3365072,-0.113728434,-0.5198514,0.12757567,-1.5678033,0.46395513,-0.24512058,0.16274239,1.4739677,-0.5556414,2.0395641,-0.7341684,-1.7596128,2.0169418,-0.5819479,1.3213683,-0.42108276,0.734368,0.8569443,1.0219784,0.82566285,3.9398594,-0.29520595,0.7575128,2.4519472,2.5155292,3.1920393,1.3197927,-0.75554657,2.0685196,3.2089062,0.15540835,-0.14746776,1.3904003,-0.5745148,-0.29830727,1.3198128,-2.8570275,-2.7549152,-0.24502482,-1.5915128,1.0510231,-0.5188174,0.25420555,1.1901683,1.7305038,0.90244913,1.9664524,-0.7541831,1.0751922,0.6694796,2.4090648,-2.828653,1.2160614,-1.0544543,1.9201455,1.5560396,0.4452288,-1.5364524,2.2672727,1.063108,0.9371086,0.44267452,1.993123,-0.2527445,1.7642802,0.23249267,-0.48166662,-1.4357213,0.8836148,0.91527355,0.8902076,-0.15058091,1.1090472,-2.7261775,1.4140797,2.9561985,0.092790686,1.3603256,1.4923681,0.75659174,-0.0818634,-2.8389277,1.3292886,0.941935,-0.39386606,-0.20849,1.1719906,0.94873977,0.30564228,-2.5682936,0.23618634,1.8797487,2.468679,0.9823139,-0.33870775,0.12205474,-2.7683618,1.5798124,1.7881312,-0.82672834,-0.033996046,0.9673875,-0.021924177,-0.8958235,-0.6428051,1.2600839,1.3006381,-1.0028021,-0.41959324,0.46958008,-0.12150988,0.2101586,1.0586641,2.7597172,-0.723839,-0.2840053,1.5012819,1.0073283,-1.7001576,0.37811247,0.42327225,0.58399755,1.5888888,-0.23053023,-0.11591181,0.54959124,3.6287754,1.4232062,-1.7469008,1.2230294,-0.13907312,2.8502655,-1.4812967,3.1528049,1.0018139,1.0984929,0.72725767,2.151552,0.1405668,0.005936345,0.0072991382,-1.0417184,-0.1498369,-0.13353585,-1.7746309,0.60593027,3.0779123,-0.5990159,2.1129055,0.38640738,0.7066195,0.76484525,2.3350866,-3.1319227,3.670537,0.5358342,1.3015318,0.27078122,2.674553,1.5743682,0.37504402,2.3265793,-0.50501144,2.4679377,-2.0675788,0.5579131,1.4650279,3.1107166,-0.81284446,-0.53322136,-0.064350516,-1.9753866,2.3798609,3.1744819,1.3989071,1.001864,1.2402836,0.33344668,-0.7837896,-0.12302425,0.8093085,-0.10034944,1.4045652,-0.37060133,4.4796844,-0.89252794,-2.8585408,0.15807049,1.7938334,-0.69811296,1.4673826,1.0680169,2.1589618,-1.3332015,2.1054935,1.0336888,-0.177866,-0.37156418,0.36068955,-0.1045248,0.2076247,-1.6421493,2.9332669,-0.61070454,2.5280323,-0.65322024,1.7447629,-2.6637907,2.297415,-0.37793928,-1.7462975,-0.20519288,1.6308615,2.1870947,-2.4429452,0.3481361,2.0395966,1.1774038,0.41081762,1.9063938,1.2340703,2.0350184,1.484569,0.6076814,1.2948084,1.8715352,-1.4379693,-0.79276085,-0.12764016,0.36888334,1.6406208,0.1493896,0.62243783,1.2773631,0.051065728,0.09868747,-0.3076053,3.3065352,-0.046936914,-0.29138774,1.4799898,-1.8539436,2.180363,-1.0190895,-0.78071165,3.2361784,-3.599959,-0.11229026,-2.2058501,-0.40050682,1.2621814,1.8194755,1.0405649,0.5418851,1.4065921,3.4289138,1.2934884,-1.2615665,2.225626,0.46672252,1.6287606,-1.6199237,-1.5289314,1.5867714,1.945776,1.7340492,0.13776842,-1.1898736,0.56870794,-1.8274437,1.1977621,-0.04953888,-2.7839544,1.3998523,-0.8228672,-2.3299997,1.3643886,1.8242694,0.12677678,-0.08259612,-0.86509484,1.7350781,0.65500313,-0.651988,0.21111101,-0.62138635,2.083077,1.4207813,-1.7676002,-2.1683626,1.3588259,0.3101056,1.4505584,-2.4478083,0.7856032,3.3923218,3.0726662,-0.30250433,-0.22715946,-0.72448283,0.086415954,-0.77713704,-1.5537269,1.0134342,0.6274925,0.61054796,3.29068,0.16686296,-0.22455484,0.8375262,0.4799057,-0.3449444,0.22613071,1.0537376,-1.2594253,0.6789308,-0.18733762,-1.3442563,2.3637178,-0.06791272,0.2895773,-0.5525831,-0.26733974,2.332753,1.0523088,1.3720402,3.799715,-0.30449694,3.4337814,3.0208228,2.301717,1.6498528,1.0067661,1.8896755,-0.36608693,-1.6821115,0.22512247,-0.33895785,0.9715992,1.1436228,0.31145245,-0.33113998,2.149154,0.481459,-0.21107619,0.1094334,0.16385943,2.3187857,0.48874986,-3.1041646,2.463392,-0.47813132,-0.65556055,2.1139698,-0.0043995413,0.007855862,0.12831151,0.46565434,2.150046,0.9125393,-0.6723274,-3.052276,1.6394386,-0.09305447,0.9143381,1.4554017,-0.67335695,-0.08381208,1.3090693,-1.766904,-1.0420003,-1.1534085,0.9106578,-0.09509314,-0.65996796,1.7480828,1.6065155,-1.1815418,0.17523223,1.2642459,2.9795296,2.1860707,1.742304,2.68848,-0.66590166,0.041182276,-2.5395463,-3.4462621,4.1672583,1.0017858,-0.018938135,0.1439229,2.3730037,-1.7164475,1.4507942,-0.45108932,1.4923716,0.91038746,0.7036044,3.8040736,1.1653017,1.887075,1.4120473,2.760625,0.6319109,-0.7795273,-1.3254516,0.01560713,-0.9472578,-1.4032092,-0.97811216,-3.4054759,4.227318,0.56969833,-1.2300099,1.0224965,0.4985184,2.2419598,2.0769894,3.1678586,2.4928324,-0.7395555,-0.2275921,1.8289248,1.8220032,-0.6480034,-0.039554566,1.2346735,-1.7220159,1.4290756,2.4204128,-0.7410288,0.6396135,-1.2540027,2.9942203,2.606346,0.57182574,0.19416638,-1.4616363,-0.7726815,0.83817583,0.38327682,-0.24055618,-1.6172388,-2.028223,-1.8756918,-1.0388858,-2.1360462,-2.5037231,0.58028835,0.18334067,1.5232681,0.92587453,-0.68178284,0.7563351,-1.409464,0.8480396,2.6294136,2.2090962,3.1801627,0.025881082,-0.7075461,3.3252654,1.1073693,0.77154255,-2.6378043,0.43904796,-0.439899,0.67630106,0.85508937,4.62556,-0.68071556,3.512227,-0.6689082,1.6817138,2.1009476,-1.0706621,1.5667006,1.4974675,0.2997809,0.73351574,0.5701522,-0.4558778,-0.39186323,3.115136,2.6480975,-0.7494258,1.0372576,-1.02441,0.15453096,-2.198942,-0.62477815,0.94426596,0.87197304,-1.9224824,1.6373856,-0.22709051,0.7923199,-0.98614216,-2.595174,-0.49477315,0.74192977,-1.7712935,0.60287994,-1.5940776,-2.1374004,2.1846752,-1.8042759,-0.6701216,-1.3117822,1.8673012,0.15055019,1.3498492,-1.1073545,3.391134,1.6040658,-1.3466088,-0.69427705,1.4232084,1.0696892,-1.245354,2.5865936,0.5652208,0.260944,0.792051,1.6705353,2.0365894,2.2746234,0.31493205,0.08380201,1.6782305,1.3698345,-1.5626003,1.3254392,1.6882765,2.6044345,1.0391238,0.060176864,0.06589483,2.138594,0.7692182,-1.1279277,-1.4922235,-1.2059102,-0.7053538,-0.050465405,0.18945414,3.2921546,-1.5099903,-1.7002282,0.028302556,2.6349664,3.524271,-1.4909749,0.15502964,0.85490906,-1.0970678,-0.03398171,1.1741971,-0.8735394,0.63892996,-0.143618,1.2618791,-1.521776,2.534542,0.6125554,0.887414,-1.3269969,0.15034038,1.9916605,-1.4513407,1.3858458,-0.9603823,1.1329945,1.0566207,-1.4387873,4.2162056,-1.127823,1.0598469,1.0695533,-0.2524094,0.79598296,2.5159898,0.19576171,4.5374856,0.26462722,0.7566455,-0.6116265,-3.1755204,-3.0656981,0.5664804,1.1340616,-0.13222188,-0.13362798,-7.804353E-4,-0.5395743,-1.9476678,-0.6614137,1.770354,5.61236,-1.9848347,-1.0082774,0.72977626,0.1834524,0.16358875,1.6352131,-1.9536875,2.1864872,-0.52822155,1.8944577,1.8288066,1.6074857,0.93920034,-0.23989041,-0.1922314,-0.850358,-0.31767714,-1.1259674,-0.4774464,-2.2861767,0.17615971,0.780947,3.1279185,4.2713833,1.2958324,2.2464604,1.1252241,-2.2172754,2.1232045,-2.6488705,-0.490984,-1.2946609,-2.3107355,-1.0271456,0.7428958,-0.7629379,0.98441905,1.1095908,1.9214118,0.38798112,3.741171,-0.116883904,1.8228153,-0.6788385,1.8492091,0.9869334,-0.57998204,-1.2397107,-0.25803444,0.39597136,2.196532,2.9055717,5.2499237,2.5744243,0.6398927,0.012007086,0.68951434,-2.055818,0.3980858,-0.88465667,0.8713758,-0.34580982,0.34269762,3.5178015,0.6633951,0.46547592,-2.2337995,0.06464316,-2.2877069,-2.2923748,-0.27122596,0.7838863,0.3954933,1.737427,0.11593726,1.5231377,-0.09102013,0.50097686,2.274186,0.84588635,2.9114254,3.4044948,-0.35652643,1.8323499,-0.39699325,0.11697873,1.1745396,-0.20307398,1.1116372,0.8250117,-1.1484978,-1.6690958,1.0508753,1.8654002,0.26048848,-0.06372806,0.7998061,1.9741023,-0.8569467,0.51556736,-0.76309055,1.8855095,-1.1061074,0.86790806,-2.106911,-0.49273697,1.3527014,1.6683162,0.8648325,-0.30992886,2.5187616,-0.82155484,1.3954619,-0.8325932,-0.39631855,0.6389723,-0.7374346,0.37014526,-2.334843,0.27553928,-1.0269537,0.635374,-0.3600206,2.7336845,0.38208857,1.5108724,-0.9544163,0.3812237,1.6158571,0.19812448,0.45129392,-2.2944071,0.11250639,-0.4388769,2.944155,-0.9469548,3.0643802,-1.2052709,0.89563185,-0.7584014,-2.7603486,2.0028095,2.2250812,1.5710025,-0.85342926,-0.6275263,0.50115526,1.9919252,0.26534867,-1.3655455,-2.3982685,0.9390527,-0.5893188,-0.905808,-1.9368967,0.78534037,1.7371075,0.7688521,1.9063804,0.2688653,1.4767836,0.92823863,3.0441124,-0.98691577,4.38475,0.18473195,0.74258536,1.1121297,1.4233688,2.4783652,1.990316,-2.0244503,2.0751178,1.655523,2.6818712,2.623736,-2.9573612,2.3714628,0.46339372,1.7154912,2.5119536,0.42512202,-1.6493086,-0.9839969,0.37850076,1.5088688,-0.7291734,0.07376402,1.560823,-2.9004788,1.7914209,0.49583864,-0.99218845,-2.3403432,-0.6474924,1.9934878,-0.8433169,1.6415237,0.27816156,-0.049235582,-0.12777546,1.500278,-0.851164,0.07424032,-0.6011028,-1.6270804,0.34002763,0.61200875,-0.5242663,-0.41920903,-0.36468315,-2.077029,-1.2537647,-0.19651191,-1.0065801,1.5309591,-1.8015327,0.76562756,1.42185,0.88740003,1.9573718,0.19073813,-0.96377444,-0.9151474,-1.6959193,-0.9352728,1.4540067,2.668279,-2.4274344,2.518059,-0.68385255,1.6143228,-1.8290362,0.65497315,1.146691,-1.1855131,0.19981249,1.49546,-0.83933663,3.2852495,-0.022174038,0.55578184,-1.1203549,-0.83118576,0.27023456,3.6421618,2.7459755,-1.0741256,2.2143703,0.4619161,-1.0780052,-1.3868768,-0.98224175,-0.58403796,1.2907488,1.3946594,2.2060845,1.3473281,2.225455,0.38674486,1.030339,-2.188846,-1.8941987,0.7624007,-1.4434202,-0.6574199,-0.0770131,0.2145809,0.71560955,-0.86568207,0.3087224,2.4737148,-1.6233596,-1.8571777,2.1597798,-1.2491589,0.031499244,0.7249248,-1.0371575,0.7983885,-0.58370626,0.31287873,2.0040455,-0.60423446,0.2548355,1.8579874,1.8476696,0.827781,-1.0673171,3.492946,0.008245736,2.6113083,1.5671526,-0.62197626,1.4475803,1.2541969,-3.0296893,0.5113936,-1.2073746,1.6401381,3.2471704,2.7646983,1.3047165,-1.1620504,-0.1253616,0.8748375,0.51604164,1.3661251,1.6903292,-1.835119,-0.64713764,0.8354261,-0.1599611,-0.6831058,1.9259957,-0.7772382,-0.37369677,1.7898741,-2.6629002,-0.83269596,-0.86672556,1.2952417,1.4659721,0.9505695,0.74033076,0.24137037,0.41561416,-1.1102866,-0.7385724,1.8292164,1.20665,-3.9130652,3.3138342,0.25127482,-1.0754241,1.722747,4.1135335,-3.064819,4.0659595,0.8016643,0.9517242,2.778797,0.92641544,1.7781993,-2.1336486,1.1159034,-0.21577261,-0.71128356,-2.0809307,0.70428026,0.27391973,-1.4514735,2.367729,-1.5165948,-7.553026E-4,-1.048587,1.1169589,0.06404816,-0.45885947,-0.80615836,2.2849598,-2.763974,1.1524146,-1.2571878,0.79697216,-0.15322693,0.92295575,-2.2331498,1.4003727,-2.506769,-0.5554853,-0.6072014,-2.3323486,0.60424364,1.6715193,-2.496536,2.8823597,3.2866538,0.9821022,-0.6467427,4.5918174,1.0307997,1.3800371,0.9060368,2.9427476,2.789825,2.3727055,1.1876326,-0.21243605,1.5332887,2.5650558,-1.511335,1.0485018,2.872421,1.3809135,2.774587,-0.29597384,-2.280744,-0.6386603,1.2689697,0.65686554,-0.6841493,0.34492904,-0.10432616,0.9436041,0.26871598,0.63308,1.3159806,0.03595274,0.17412919,3.193909,0.29826295,-1.9695948,2.0533607,-0.6417,0.89966667,0.38815475,0.24679567,0.21208997,0.15599638,2.556029,-0.5313021,-0.7605779,1.1521559,1.5020365,2.6016722,0.14468485,2.7131639,0.11417627,-0.76194566,-0.6404368,-0.7936078,2.6116104,-1.724835,-1.9532654,-0.7237341,0.1473276,2.88193,0.047315277,1.8698783,1.832739,1.7424281,0.33176988,1.4909261,1.722173,2.8935256,2.8329632,-0.5503207,-1.2157946,0.025301905,-2.2444031,0.36803925,0.74818045,0.8369106,-1.1875732,2.5217726,-2.0792384,1.2334907,1.616593,-0.6365723,0.08469481,1.3065221,1.1691954,-0.5315883,2.2354057,-0.57219595,-3.448507,-0.81539166,0.89761156,-1.7640706,1.4777665,0.6093836,-1.0908362,1.4509417,0.68130124,0.3784421,1.0732286,-1.5987543,1.8671248,2.059203,0.36751264,-0.2627559,-0.059353717,-2.6082156,0.8711025,3.2470574,-1.8496873,-0.7802752,-1.9754819,-3.8342824,-1.0441676,0.93238604,0.72133577,0.33739763,-0.4599658,1.0185382,-0.051304236,3.907888,-0.72420794,0.9110414,0.7529638,2.8753955,-0.56997657,0.9940894,-1.8365301,-1.5275828,-0.7949057,-0.5596117,0.07559344,1.2893279,2.0656118,3.728373,-2.2139559,2.2535312,3.1490357,-0.3758791,3.5557091,0.97286433,-0.6721438,1.7955765,0.6853814,0.20688242,2.6810431,-0.74403495,-0.15764812,1.9538381,3.9075754,-0.88950175,2.2601957,-0.18930265,-0.03589175,-0.020760939,-2.693282,1.1698195,-1.8331722,0.4652876,0.7922866,2.5810232,1.2650644,2.6147194,-0.17192765,0.80393076,-0.89258164,-1.0804353,-1.113886,2.601619,1.778822,1.1091274,0.22322285,0.58538586,-2.4207149,-2.0105238,0.8764207,3.4783144,-2.4878674,1.696958,0.3181946,-1.0988088,1.402253,2.4593287,2.0335689,0.47674677,0.9020089,0.15616725,-2.122296,-0.32488394,-0.64032507,-1.5653104,-1.1503744,-0.048849024,-0.454315,-3.281337,0.81566155,-2.671114,-1.5497293,0.7709422,-0.015114777,-1.3564901,0.06387522,-0.08782671,-0.8632874,-0.10275959,3.3078215,-0.2926944,-1.8057865]},{"key":"2_W","values":[1.8783717,0.1484986,1.3499265,1.0098432,1.0393195,0.96726155,-1.9478079,2.374911,0.843966,3.388129,0.7549773,2.3535903,-0.28757718,-1.1604449,-2.8340206,-1.5780332,0.7932543,1.0531489,-0.46762672,0.43341637,2.0670555,2.8274412,-3.099418,0.59810454,1.4109236,1.6200206,1.5559369,0.21394782,2.5317216,1.5407629,3.1446111,3.8572114,-1.6412731,-0.6824743,-1.4402317,1.5798124,-1.1201812,1.9516251,4.7662306,-0.20523301,1.3483152,0.5289811,0.48170733,-0.031458132,0.8764091,0.733317,1.3290546,1.0410043,1.5045527,-2.0376,2.3645227,2.546486,1.3833516,1.6225103,2.636415,-0.23060659,0.89099175,2.4332798,0.1900466,1.2086141,-0.7464303,1.7326304,-0.88326025,0.6462592,1.483028,2.086425,-1.0711997,2.3536034,1.3241544,-0.5497351,1.1991479,0.24417022,-0.3335201,-0.85568833,-0.122630835,0.510383,1.7867985,2.4715226,2.1972845,2.4778078,0.7753257,1.4984123,-1.2369257,0.27193213,0.2252645,0.028655931,0.5420643,1.8227695,0.5348599,0.9427209,3.7022715,0.38080308,0.9797154,5.150881,0.9965734,-0.3820877,3.092428,0.9519335,-1.7194026,2.5365167,1.4421946,0.08815194,1.1600833,0.057172976,0.12823567,2.6408217,1.7401512,1.2016013,0.7296222,0.61352223,0.23600149,1.1313493,1.3852537,-1.8755836,-0.6916597,-1.8173509,1.0465674,0.023200952,1.3950479,-0.7726832,-0.1615638,-0.95256585,0.10135602,1.4683193,0.39557105,-1.9239572,2.132736,2.4189951,-0.5825331,0.18786597,0.7427573,0.31133482,2.7615478,-1.7312666,0.04760082,-1.7156105,1.1440924,-0.56865585,0.84781086,-2.8379726,-0.5897491,1.0902522,-0.5806792,2.8214583,-0.37578654,-2.2283573,-0.70417917,3.8338075,0.59303737,0.20739695,2.2275977,-1.3631973,0.8335744,-0.6683712,-0.91266346,0.06571485,1.7974992,0.85402167,3.3489194,-0.42090058,-0.7419978,0.29267442,-1.3058711,-1.5425743,0.31303298,1.9903518,0.3260118,1.3502532,-0.059356086,-0.66604257,1.5789955,1.6343623,0.55256885,0.9692584,0.21171612,0.52394676,1.7060754,3.4454374,2.881681,-0.95850194,-0.4200806,-0.4776741,1.0864393,-1.5232996,1.605012,-1.0216867,2.486499,-0.020225227,0.6086389,0.014133306,0.15743783,0.35597482,-2.2752125,0.26944578,-1.4137169,1.1923552,-0.30757597,1.6484941,1.9293655,-1.400925,0.7537293,0.42526233,3.1144023,2.491948,-1.0152828,0.6248511,-0.6603751,-0.9377868,3.8480072,0.77683264,2.6618743,2.9987144,2.5446053,-0.78708434,1.8213456,1.5750258,-0.17599198,-0.48210534,1.9714727,0.3424559,-0.7728767,0.10114776,-3.4426997,-0.8868979,1.8995107,-0.092510894,1.5647161,-2.1039388,-1.49667,1.1430889,0.23008412,-0.32717273,3.0718915,0.72683465,0.9699182,1.9166914,0.43560767,-0.07086127,0.19663551,-0.3035245,-2.07895,-0.5557849,0.5822173,1.2193018,-2.1458151,-1.3721209,-1.0328697,-0.06642651,1.720576,0.6682267,2.6981125,0.5707578,-0.8308356,0.20398666,-3.0407682E-5,0.280423,1.3026384,0.40968433,0.4036919,2.6220481,2.6083739,1.1689148,-0.49960557,1.0304022,4.00111,-0.28969407,1.4385903,0.5998411,0.04404939,2.2486825,-1.1754545,2.102898,2.0296187,-0.041401085,-0.42880407,0.07214811,-0.21785113,-0.8721526,2.7896812,2.3872392,2.7788386,2.4570944,-3.0285683,-0.8187132,-0.5458787,1.4531006,0.5110881,2.7401755,1.8508074,3.027145,-2.0496094,-0.77171624,0.052547514,0.62221515,0.9532532,-2.3192658,0.5632688,1.8641235,-0.38774475,1.5484778,2.0949004,0.6113912,-1.6947557,-1.3947657,-1.1232005,-1.1202986,-2.224607,0.4059759,1.7597857,2.8263571,1.9565529,-0.5895852,2.1990602,1.060034,-1.0542369,-0.51981163,0.3577961,-0.2499828,-0.68188816,-1.2052274,2.5073547,-1.8057176,1.4493418,0.34745365,-1.6325387,2.336632,0.09717459,-0.7554489,1.3717486,0.33149064,-0.39644778,-0.34790626,1.7524625,3.3780713,0.5453885,1.0780535,-1.6211371,0.26452994,2.3450913,1.9721676,-0.11679804,-0.7581317,1.0509233,0.5762743,1.6017572,-0.12917277,-0.35950658,1.1175973,0.7198476,-0.14916208,-0.48863673,0.39965725,0.11708094,0.7258573,0.119941555,0.63988566,-0.08256841,-0.74563473,1.5444161,0.94075406,0.14785695,3.05856,0.93865335,-0.16146389,1.7226357,-0.38851687,-2.8697166,1.3466145,-1.2079201,-1.3760475,1.3348995,2.1324308,-1.5357788,3.8979175,1.0640309,0.8397765,-2.135206,0.15498254,-0.5270006,-1.5787767,-1.5954071,-0.81388,-1.1826634,1.73566,0.2925141,0.9323184,-0.14324647,0.9508004,1.5361487,-0.4492364,1.3211911,0.98917586,1.1077936,-1.6893727,0.8576172,2.8115473,-2.628535,-1.0751925,0.8945949,-0.36499387,-0.01666665,0.26397127,-0.9971731,1.340526,1.1204717,-2.794202,-0.38330936,-2.5770068,-0.90863353,0.7196229,1.2903978,0.21086285,-0.7194054,-0.44004685,-0.02873495,1.4632354,0.501719,0.6785178,-0.33159062,0.09722203,1.0466876,1.7395847,0.90563774,0.71345556,3.2706378,-0.20543365,-0.43376192,-1.9445647,0.8423479,3.8903687,1.3311548,0.5838949,-1.6334194,-2.9124568,2.6445773,1.0412997,1.5910246,0.10751153,1.6447144,0.8264983,-1.3947362,-0.3329957,-0.12244761,1.0919201,-0.018728033,0.3101597,-3.408295,2.425698,0.05791609,1.5564647,2.0525386,0.32200503,0.7816468,1.0074204,0.033557683,0.09992011,2.4907756,-0.02853866,-2.3351169,-0.09879529,3.1600585,4.6988077,0.05414688,-0.6233252,-1.6662108,0.52779424,3.801221,1.603644,1.2871288,-0.45228183,1.9701797,2.4378724,0.77140117,3.2161736,1.6700413,-0.58540344,1.671294,0.9580545,-1.49601,2.5918965,1.3688931,-0.114498496,-0.89547276,-0.21799792,3.4554017,1.9357117,-1.5497451,0.11808958,1.5919671,4.2130423,1.8523713,-2.2671754,4.1956024,1.410496,4.0048122,-0.43588978,-1.0765653,-0.45573503,1.8457837,-1.8059434,0.6651354,3.4757295,-2.1237423,1.6524253,-0.057248317,1.9550586,1.5326229,0.56456053,-0.81238014,0.9785372,1.6299347,1.1742228,1.1413549,1.0158143,1.307414,1.1732731,1.4391394,0.05587223,-3.0195112,-0.37832206,0.1996411,2.2270064,1.9531324,-1.7438011,0.60078347,1.4087881,1.3771044,0.7302106,-2.841719,-0.4031511,0.9039682,0.873906,0.9680041,1.3276665,-0.5939732,1.1967537,0.087777376,-0.9131146,2.5877445,0.57721114,0.5334401,0.4233022,-1.286878,0.9643799,3.5311856,-1.1283811,2.6012049,-3.2628524,0.38594353,0.03043292,1.8385515,1.3501035,0.26929262,-0.24895045,-0.93009245,1.4127035,0.3451988,0.3137058,-0.07312474,-1.4315665,-0.27739036,0.508186,-0.59661204,-1.2559651,0.38673896,-1.5473161,-1.0957608,-0.7662821,1.4003603,0.2298066,-0.46654904,0.9515972,-1.821561,1.6027898,-3.602295,0.63007003,1.2012627,0.6960514,0.8608594,1.0442324,-1.2640216,1.236847,3.6105037,1.9598154,1.3462353,1.1032465,0.14154248,2.3921661,0.81064147,0.7869615,1.8390049,0.80946535,0.67238265,-1.0564421,0.9479117,1.3000125,0.61044466,-0.34439006,-1.139873,-3.7114167,-2.1976159,1.3466004,1.3620389,1.380391,-0.35844505,-0.24167807,0.90512586,0.09927879,-2.670499,0.07438185,0.4794603,1.4778394,4.0388045,-0.11905664,-0.46963322,0.27167383,1.9403875,0.48158085,1.1518124,0.6990941,0.3491717,-0.9634132,3.587646,0.06884711,1.8980687,0.44238055,-1.3076745,2.4562013,2.1742961,0.6021536,1.7284974,2.2443812,0.018716948,-1.196073,1.5827112,-1.190469,0.5898333,0.30914035,-1.2420592,2.1513498,-1.3247198,-0.37247783,-0.14231098,0.84008956,1.355087,-0.25552863,1.0845798,-0.018445728,-0.49684042,0.14217292,0.9177966,0.5365362,0.67344046,-0.6314516,2.3915582,0.1577033,0.8460758,1.9435307,2.4881825,-3.2915502,-0.023726461,2.5447493,1.4687293,2.8688421,-1.3420516,2.7383978,-0.34586075,0.604154,0.68436086,-0.03649292,2.1104503,1.2780066,0.14630176,-0.85862494,-1.4381928,2.6346898,1.1168039,1.1727725,0.2205923,0.36920285,0.6904561,0.38717672,-1.4524595,0.5631054,3.3909235,1.7159287,1.4760627,3.8903759,1.2713817,-1.4817008,0.8858281,-0.6061655,1.7878124,3.6063905,-0.5190782,0.65524524,-2.4995155,3.505401,-1.7833576,1.0055213,-0.9288147,-0.06737089,-3.192844,-2.2251105]},{"key":"3_W","values":[2.8024564,0.7721451,-1.5418388,-0.47136927,-0.06749867,-0.55910414,-0.9963719,2.5690732,-0.6325715,1.5922178,-0.633929,0.40480947,2.1651196,1.7646126,1.8176157,-0.2301822,2.6210232,-0.48885608,0.109958015,-2.4093153,0.4415264,2.248244,0.28631157,1.199539,0.23044027,1.2832735,0.8552073,-1.9147555,-0.2128298,1.5662159,0.8114758,-1.3342113,1.1921107,-2.1394215,0.67916286,1.6850916,1.4684274,0.41480318,-0.86750466,-0.28750476,1.1847048,-0.9464236,0.23888713,-1.2636743,-2.1745398,2.1299312,0.6424526,0.27397928,2.6318233,-0.46513057,-1.6680716,0.7618882,3.4450774,0.029117059,1.0786145,3.5489159,2.1612833,-1.220215,1.9888272,0.6015565,-0.5091965,2.4153364,1.106316,-2.3260124,3.9984634,-0.69130385,-0.90915877,-1.4252304,-0.84415454,-0.8564021,2.6207976,-1.0316943,5.0281067,0.31958675,0.9498589,0.73385656,2.72807,-0.64424485,-2.5051146,2.7775092,3.0138254,-1.076212,-3.0344014,3.5276709,-0.019370079,-0.5705954,2.1780815,0.092208356,0.7035112,1.6760346,2.1307752,0.78438854,0.58866847,0.60642815,0.23950621,-0.63972837,-1.7599428,-1.2171837,2.1888318,-0.6361752,-0.6378507,-0.7983367,1.6745853,-0.8190269,1.3268844,1.8793658,-1.444342,-0.21523283,2.076965,-0.19348937,1.8226141,-2.3777509,-2.1273866,-0.8828671,-0.17759374,1.0266485,-1.5745841,4.5782967,2.4679408,-0.29911405,-2.8406231,1.9244493,2.6697044,0.750344,0.07999975,0.052064784,4.3341417,-0.12918134,0.81511694,-1.7713892,2.2010117,2.7799025,0.3696301,1.2593899,-1.8646477,0.06044131,0.14422527,2.3190956,-2.019171,0.9262317,2.716208,-0.08818609,-1.3803675,1.3260049,-1.3226062,0.18564844,3.927173,0.21975744,0.8999123,-1.9611342,0.8862804,1.6582509,-2.9128132,2.0253897,0.22385922,-0.48399454,0.8042937,-0.49644598,-0.91212744,-0.29796,-1.3665911,-0.8047318,0.17477451,-0.9118958,0.92885864,1.0746912,2.3176436,-0.6016718,-3.6262877,-0.52739596,0.32313138,2.01681,-1.5083013,0.04388307,-0.13159509,0.8800228,1.3763372,1.9903566,1.1419867,0.93632174,-1.0722667,-0.12930723,0.32195354,-1.7758859,0.8256497,0.941121,0.44760668,-1.0361197,-1.1553216,2.2287211,0.60118854,0.4791562,1.4863604,0.80039316,1.815167,1.0871762,0.34195068,-1.422447,-1.335729,0.7788797,2.8313885,2.361055,1.3352276,2.0124364,-1.1986203,1.5958576,-3.3094633,0.45097235,0.6266259,0.19534281,-0.49163982,0.38623017,1.491554,-2.9560378,1.837533,0.3779513,2.1505785,2.0728703,1.1766936,1.8126059,2.0031872,-1.849778,2.5140617,1.0126827,4.3334026,-1.0554061,-1.9361212,1.6687198,-1.2314447,1.4398034,0.6623153,1.4471773,2.0115223,1.8583292,0.94647616,3.589125,-1.243375,-0.20528068,-0.8932989,-1.2576047,3.5732815,1.0981791,-2.3695872,2.1645813,-0.6096394,-0.22580917,0.116913795,0.3996725,0.3798399,0.31380057,0.3128343,1.6890397,0.90496314,0.6216677,-0.7501385,2.459342,1.5823092,1.9074115,-2.22571,-0.055247217,0.10911261,1.3376757,2.5665529,-0.7780139,-1.2841421,-0.23518926,-0.2527695,0.21614966,0.92634845,-1.377708,0.35628814,-0.4690044,-0.037738465,0.22685371,-1.1986548,0.4708809,-1.3917807,4.5332966,0.731443,1.959869,1.3259408,-0.028179565,3.2849467,1.2806056,-0.48361233,-0.81199396,0.1479747,-0.5970256,-0.57006335,-0.46064314,0.19207442,-1.6188601,-0.5546588,-0.559095,-2.321402,0.3762296,-3.5782943,-0.6519854,1.3671391,0.55295813,0.07338619,0.1225801,-0.9691603,1.5230656,0.6009753,-0.4336421,-0.7291726,3.5936587]},{"key":"4_W","values":[1.2058334,1.405072,-0.21270396,1.1721483,0.600466,1.0001068,3.3502169,1.886462,-0.557076,-1.5228677,1.5781335,3.2829287,-1.0120267,3.06713,2.6451976,-0.3876326,1.358936,-2.6501243,-0.7559334,-0.50771767,1.3481052,1.5941448,0.035128765,2.0756607,1.8756793,2.3596869,-0.94434255,0.06889888,1.018869,-1.2685202,3.074194,2.489804,0.8763601,0.39460757,-0.5849878,1.7022566,1.6406286,0.9655714,2.5739005,2.7708254,-0.74377686,-1.2055277,0.94488245,-1.008683,2.8898103,3.6167114,0.1514169,-0.35558924,0.40574446,0.08202551,1.4124283,2.9356189,-3.0888233,1.9996353,-2.1491656,1.6680938,0.40833545,-0.38358527,-0.38074028,-1.1638833,0.22887285,0.095615536,1.1011137,-1.0559396,-1.0761099,-1.4474133,2.7374356,0.18050437,1.3560407,-0.9547976,-1.4620097,-2.3384302,0.5034373,-1.0326642,-0.56505316,0.23481524,-1.4792087,1.5354601,0.17457719,2.403009,1.9030207,3.235263,4.698531,0.115601666,0.9809615,-2.477288,0.6042968,-0.26607794,3.4759662,0.5289793,0.9707449,1.6045022,-0.34289488,0.4438404,2.28242,-0.44289201,-0.86037695,1.3774958]}]}